{"layers": [{"batch_input_shape": [null, 1], "class_name": "InputLayer"}, {"class_name": "Dense", "units": 20, "activation": "relu", "weights": [[[-0.32810941338539124, 0.06077784299850464, -0.23351994156837463, -0.042717158794403076, 0.025723397731781006, 0.11284756660461426, -0.3195021152496338, -0.27293819189071655, -0.3673440217971802, -0.11630997061729431, 0.1382157802581787, -0.10723039507865906, 0.19324851036071777, 0.15892952680587769, 0.3728315830230713, -0.5092912316322327, -0.24014070630073547, 0.01824343204498291, 0.3151615262031555, 0.49970704317092896]], [0.0, 0.0, 0.0, 0.0, 0.0, 0.0, 0.0, 0.0, 0.0, 0.0, 0.0, 0.0, 0.0, 0.0, 0.0, 0.0, 0.0, 0.0, 0.0, 0.0]]}, {"class_name": "Dense", "units": 20, "activation": "relu", "weights": [[[0.24661868810653687, -0.05028289556503296, 0.31628596782684326, 0.18783098459243774, -0.057230204343795776, -0.30776527523994446, 0.2583487033843994, 0.3194845914840698, 0.05144563317298889, -0.10353171825408936, 0.15967750549316406, 0.36307013034820557, 0.2735580801963806, 0.03940322995185852, -0.3497026562690735, -0.029179245233535767, -0.2626664638519287, -0.1276983618736267, 0.26039689779281616, -0.35106658935546875], [0.03643950819969177, -0.3869226276874542, -0.21620364487171173, -0.1756286323070526, 0.33983170986175537, -0.10532838106155396, -0.0236872136592865, 0.029156267642974854, -0.1404283195734024, -0.006717860698699951, 0.3625275492668152, 0.13532739877700806, 0.23766785860061646, -0.22301338613033295, 0.32144302129745483, -0.044212907552719116, -0.2255658209323883, -0.2718966007232666, 0.06903651356697083, -0.17992407083511353], [-0.2733212113380432, 0.09242528676986694, -0.06061750650405884, -0.18007273972034454, 0.04265311360359192, -0.09953981637954712, 0.03246200084686279, -0.2771165370941162, -0.2799534797668457, -0.2604003846645355, 0.05103603005409241, -0.20036406815052032, 0.023034274578094482, 0.05901503562927246, -0.1683652400970459, -0.17789362370967865, 0.01894107460975647, -0.13997337222099304, -0.08736518025398254, 0.04651343822479248], [0.283955454826355, -0.2773321568965912, 0.37110602855682373, -0.08804312348365784, -0.1891002655029297, -0.1472984403371811, -0.11846870183944702, -0.3530704379081726, -0.35421591997146606, 0.2627362608909607, 0.1470632553100586, -0.1511860191822052, 0.07808971405029297, -0.16863690316677094, -0.137420192360878, -0.17146746814250946, -0.2546009421348572, 0.19664603471755981, 0.18146246671676636, 0.21693462133407593], [-0.19518236815929413, 0.0922153890132904, 0.17448711395263672, 0.09375616908073425, 0.05880016088485718, -0.12737885117530823, 0.184434175491333, 0.3555191159248352, -0.0681506097316742, -0.2874262034893036, 0.14245671033859253, 0.05062296986579895, 0.18942588567733765, 0.29377514123916626, -0.20743152499198914, -0.051680535078048706, 0.3853195905685425, -0.19380199909210205, -0.32739388942718506, -0.1754031479358673], [-0.06310179829597473, 0.15600669384002686, -0.3049303889274597, -0.3263741135597229, -0.369170606136322, 0.16566938161849976, -0.2627458870410919, 0.07102254033088684, 0.03217768669128418, 0.24287855625152588, -0.26704075932502747, -0.2410133183002472, 0.14267444610595703, 0.130154550075531, -0.1606540083885193, 0.27623629570007324, 0.2631486654281616, -0.16506098210811615, -0.0397530198097229, 0.3536209464073181], [-0.24481825530529022, -0.207763209939003, -0.05495119094848633, -0.332387775182724, -0.2822548449039459, 0.13052856922149658, -0.12399333715438843, 0.008507013320922852, -0.2717576324939728, -0.220656618475914, 0.23982900381088257, -0.31394442915916443, 0.03985604643821716, -0.36207765340805054, 0.1981525421142578, 0.09776312112808228, -0.20463337004184723, -0.25312674045562744, 0.23322343826293945, 0.3788032531738281], [-0.17020593583583832, -0.022522151470184326, -0.2183588445186615, 0.3250882625579834, -0.1411750614643097, 0.06781533360481262, 0.14768069982528687, 0.1488109827041626, -0.0199124813079834, -0.3364815413951874, 0.28520625829696655, -0.01693904399871826, -0.17839299142360687, 0.03903341293334961, 0.06964769959449768, 0.12123417854309082, 0.004546672105789185, 0.18507778644561768, 0.2670731544494629, 0.2157096266746521], [-0.32160162925720215, 0.2029687762260437, -0.314095139503479, 0.10260242223739624, 0.1318790316581726, 0.35102587938308716, -0.27274391055107117, -0.010562777519226074, -0.09982919692993164, 0.22779643535614014, -0.26860785484313965, -0.09810209274291992, -0.23840972781181335, 0.3441537022590637, -0.3073468804359436, -0.016019821166992188, -0.12659305334091187, -0.28053539991378784, -0.0831356942653656, 0.08232170343399048], [0.24919134378433228, 0.1670081615447998, 0.02895975112915039, -0.3008657991886139, -0.1994098424911499, -0.3387533724308014, -0.13515862822532654, -0.3047727346420288, -0.10582718253135681, -0.2059822678565979, 0.2691190242767334, 0.0366971492767334, -0.19182676076889038, 0.2842017412185669, -0.18304115533828735, -0.3171062171459198, 0.24123096466064453, -0.22734500467777252, -0.1383969485759735, 0.09865307807922363], [-0.09524974226951599, 0.1934024691581726, 0.021778911352157593, 0.34442001581192017, 0.35205113887786865, 0.2394922971725464, 0.045815080404281616, -0.08726277947425842, -0.16282527148723602, -0.26755860447883606, -0.17497293651103973, -0.08607298135757446, -0.009711593389511108, -0.30732157826423645, 0.2652429938316345, 0.070004403591156, -0.28747743368148804, -0.2532254457473755, 0.2959740161895752, -0.24275678396224976], [-0.1266762614250183, 0.12116795778274536, 0.16188478469848633, 0.23048770427703857, 0.25008195638656616, -0.22825011610984802, -0.3807486295700073, -0.09031745791435242, -0.21613706648349762, -0.3048451542854309, -0.03055131435394287, 0.2916783094406128, -0.3198472857475281, -0.29431894421577454, -0.026358217000961304, 0.21246075630187988, 0.008558899164199829, -0.2634059190750122, 0.2089030146598816, -0.31179431080818176], [0.23873496055603027, 0.23364132642745972, -0.3210868537425995, -0.26530468463897705, 0.2809637784957886, 0.2770736813545227, 0.3804994225502014, 0.1370002031326294, -0.1726655662059784, 0.0033206045627593994, -0.03413167595863342, -0.0018190741539001465, 0.24884366989135742, -0.207685649394989, 0.20520150661468506, 0.3060927391052246, 0.35929781198501587, -0.1994093805551529, -0.0471457839012146, -0.07081654667854309], [-0.36153343319892883, -0.18111875653266907, 0.05646046996116638, 0.3674582839012146, -0.3225332498550415, -0.3387003540992737, -0.18988727033138275, -0.19794996082782745, 0.2779363989830017, -0.13995517790317535, -0.20165008306503296, -0.25089943408966064, -0.28862881660461426, -0.10026025772094727, -0.3266965448856354, 0.09517893195152283, 0.132013201713562, 0.37825268507003784, -0.08481478691101074, 0.10735982656478882], [-0.2628479301929474, 0.2809547185897827, 0.21082639694213867, -0.31105929613113403, -0.06563195586204529, -0.13021644949913025, 0.15694141387939453, -0.07668644189834595, 0.23073303699493408, -0.3662453889846802, -0.11122366786003113, 0.025644689798355103, 0.00016897916793823242, -0.3182263672351837, 0.08721929788589478, 0.031087636947631836, 0.15958166122436523, 0.331642210483551, -0.34314417839050293, -0.07681497931480408], [0.02171650528907776, 0.07093629240989685, -0.18547411262989044, -0.12372979521751404, -0.19072626531124115, -0.3217897415161133, -0.34892821311950684, -0.11365753412246704, 0.194949209690094, 0.2668371796607971, -0.3845016658306122, -0.028353184461593628, 0.14528709650039673, -0.2358502745628357, 0.006995141506195068, 0.11866748332977295, 0.09235325455665588, -0.37257227301597595, -0.07766392827033997, 0.22081440687179565], [-0.2852245569229126, 0.26709920167922974, -0.2925020754337311, -0.15976542234420776, 0.32511138916015625, -0.35164767503738403, 0.3429480791091919, -0.28840750455856323, 0.17738068103790283, -0.051283031702041626, -0.3078046143054962, 0.2726578712463379, -0.07503172755241394, 0.2567445635795593, 0.1230199933052063, -0.25231000781059265, 0.37723082304000854, 0.30896884202957153, -0.37481918931007385, -0.3069482445716858], [0.006459295749664307, 0.019728541374206543, -0.16032573580741882, 0.3570157289505005, -0.20742875337600708, 0.02080520987510681, 0.06883382797241211, -0.001478344202041626, -0.17148306965827942, -0.1513042002916336, -0.1187446117401123, -0.14414626359939575, 0.27505791187286377, 0.15188688039779663, 0.38105279207229614, -0.28182685375213623, -0.3350406885147095, -0.33287468552589417, 0.3157399296760559, 0.3643893599510193], [0.16910827159881592, 0.3641313910484314, 0.369684636592865, -0.2074468582868576, 0.09493282437324524, 0.21796023845672607, -0.11199462413787842, -0.10842153429985046, 0.2601832151412964, -0.023220717906951904, -0.12613531947135925, -0.2072904258966446, -0.18644052743911743, -0.013997673988342285, -0.19311055541038513, 0.00041598081588745117, 0.27093416452407837, -0.11612668633460999, -0.14051032066345215, 0.06468474864959717], [0.284576416015625, -0.3066420555114746, -0.07087001204490662, 0.231645405292511, 0.3037169575691223, 0.1453050971031189, 0.24554336071014404, -0.27125540375709534, -0.03499883413314819, -0.18942373991012573, -0.3652147948741913, -0.05413639545440674, 0.020748496055603027, 0.34562110900878906, 0.19182389974594116, -0.18664424121379852, -0.27274131774902344, -0.11653685569763184, -0.3855946958065033, -0.13081073760986328]], [0.0, 0.0, 0.0, 0.0, 0.0, 0.0, 0.0, 0.0, 0.0, 0.0, 0.0, 0.0, 0.0, 0.0, 0.0, 0.0, 0.0, 0.0, 0.0, 0.0]]}, {"class_name": "Dense", "units": 20, "activation": "relu", "weights": [[[-0.2741171717643738, -0.04403051733970642, -0.37000083923339844, 0.051222920417785645, -0.05737075209617615, 0.34556347131729126, -0.02971094846725464, -0.2790791094303131, -0.22554513812065125, 0.218944251537323, 0.059883683919906616, 0.19022256135940552, -0.2961677610874176, -0.3258516490459442, -0.12255257368087769, 0.2266586422920227, 0.12338131666183472, 0.005806475877761841, 0.24606549739837646, 0.2217097282409668], [0.3784133195877075, -0.3684133291244507, -0.3722696900367737, -0.19905923306941986, -0.13882984220981598, 0.33353567123413086, 0.015252858400344849, 0.014377951622009277, -0.06498327851295471, 0.11115801334381104, 0.26198047399520874, -0.08518293499946594, 0.1363297700881958, 0.15553343296051025, 0.2290927767753601, 0.22734612226486206, -0.27293312549591064, -0.2628015875816345, -0.3256233036518097, 0.04114982485771179], [0.20301520824432373, 0.0045615434646606445, -0.31241288781166077, 0.053034693002700806, 0.38221776485443115, 0.36939573287963867, 0.3417476415634155, -0.021388977766036987, -0.1073940098285675, 0.32821404933929443, -0.17923928797245026, 0.3309019207954407, -0.31996217370033264, 0.36166465282440186, 0.055425167083740234, -0.37057721614837646, 0.024386495351791382, -0.23846310377120972, -0.20197050273418427, 0.22368258237838745], [-0.12248441576957703, 0.19079238176345825, 0.37599873542785645, 0.03678613901138306, 0.18665266036987305, -0.05616369843482971, 0.25854605436325073, -0.3083597421646118, -0.30657124519348145, 0.24549466371536255, 0.34574276208877563, 0.23375147581100464, -0.21592238545417786, -0.2151641845703125, -0.02706560492515564, 0.23004168272018433, 0.243962824344635, -0.38531574606895447, -0.1980530172586441, -0.05691719055175781], [-0.3273758888244629, 0.19531071186065674, 0.010679841041564941, 0.1410449743270874, 0.28435415029525757, -0.3837865889072418, 0.31923723220825195, -0.07405966520309448, 0.38121968507766724, -0.23660191893577576, -0.15726543962955475, -4.571676254272461e-05, 0.14026540517807007, 0.30559152364730835, -0.06094399094581604, -0.281328409910202, -0.05256137251853943, 0.10795995593070984, -0.21616625785827637, -0.15886789560317993], [0.08161512017250061, -0.20081625878810883, 0.2940005660057068, -0.11089512705802917, -0.015939682722091675, -0.3252697288990021, 0.09875649213790894, -0.060301780700683594, -0.07377886772155762, 0.08393728733062744, -0.3518914580345154, -0.11178970336914062, 0.3076626658439636, 0.32877427339553833, 0.14314943552017212, 0.007191091775894165, -0.27865925431251526, -0.22665052115917206, 0.25192761421203613, -0.06982618570327759], [-0.18156863749027252, -0.22879832983016968, 0.08524072170257568, 0.08252421021461487, -0.017588019371032715, 0.2736878991127014, -0.08393865823745728, -0.1920333355665207, -0.21939027309417725, 0.0003732442855834961, -0.24994482100009918, -0.027105778455734253, 0.29621732234954834, 0.01782265305519104, -0.3397676944732666, 0.3590618968009949, 0.31395477056503296, 0.15542596578598022, 0.15525448322296143, -0.31776145100593567], [0.2127164602279663, 0.20496821403503418, -0.06740191578865051, 0.3399741053581238, -0.35432329773902893, 0.18764734268188477, -0.2498883157968521, -0.10660725831985474, 0.01262471079826355, 0.2586634159088135, -0.07084265351295471, -0.020670026540756226, 0.2669219374656677, 0.17098230123519897, 0.13562023639678955, 0.29688459634780884, 0.18324929475784302, 0.16330164670944214, 0.05176788568496704, 0.13713014125823975], [0.1828741431236267, -0.3138195872306824, 0.1333601474761963, 0.2994425892829895, -0.054278403520584106, 0.259845495223999, 0.35668182373046875, 0.32413023710250854, -0.24487236142158508, 0.11113032698631287, 0.27368855476379395, 0.29498130083084106, -0.05587533116340637, -0.19456323981285095, -0.3249117136001587, -0.068575918674469, 0.07342907786369324, -0.3791419267654419, -0.17976053059101105, 0.03395974636077881], [-0.06129923462867737, 0.07939603924751282, 0.15353906154632568, 0.3420344591140747, 0.09277719259262085, -0.3046894669532776, 0.10559976100921631, -0.15699978172779083, 0.32529962062835693, -0.0160561203956604, -0.28115683794021606, -0.23447516560554504, -0.21510906517505646, -0.3780549168586731, 0.17343133687973022, -0.2212684452533722, 0.26378029584884644, -0.13241282105445862, 0.09372439980506897, -0.15331748127937317], [0.2554299831390381, 0.1525954008102417, -0.34218430519104004, -0.24384517967700958, -0.2900998890399933, -0.13198953866958618, 0.06426480412483215, 0.3386877775192261, 0.11667543649673462, 0.21320366859436035, -0.1849789023399353, 0.3214128017425537, -0.26216748356819153, 0.1696297526359558, -0.18537189066410065, -0.29712367057800293, 0.22853636741638184, 0.08316835761070251, 0.255679726600647, -0.07414591312408447], [0.22449356317520142, -0.024600893259048462, 0.1219247579574585, 0.12605589628219604, 0.36773794889450073, 0.07176217436790466, -0.016168951988220215, -0.31919538974761963, -0.03861713409423828, -0.032090604305267334, -0.04971593618392944, 0.11498916149139404, 0.32787764072418213, 0.05162891745567322, 0.09380194544792175, 0.3646618723869324, 0.21623051166534424, -0.05891337990760803, -0.17865024507045746, -0.2108308970928192], [-0.08373117446899414, -0.33039093017578125, -0.04441353678703308, -0.08190765976905823, 0.1044430136680603, -0.22818271815776825, -0.38226521015167236, 0.1539151668548584, -0.2761235237121582, -0.043758779764175415, -0.22862879931926727, 0.2680712938308716, -0.284409761428833, 0.26907509565353394, -0.19248773157596588, 0.24840879440307617, 0.033856332302093506, -0.18202783167362213, -0.16209153831005096, 0.09217455983161926], [0.3018155097961426, -0.2633507251739502, -0.14439696073532104, -0.15878534317016602, 0.35418856143951416, 0.2038854956626892, -0.3547559976577759, -0.3114326000213623, 0.37951773405075073, -0.26497310400009155, 0.25776124000549316, 0.26996558904647827, -0.09251382946968079, -0.023695409297943115, 0.25214940309524536, -0.29948127269744873, -0.21930421888828278, 0.22447532415390015, -0.17710763216018677, 0.3656999468803406], [-0.375044584274292, -0.09791132807731628, 0.1469287872314453, 0.004788994789123535, 0.025177568197250366, -0.36981892585754395, 0.20948761701583862, -0.25729021430015564, 0.11405748128890991, 0.052150189876556396, -0.027662962675094604, -0.2964245676994324, 0.0220717191696167, -0.22473883628845215, -0.010641723871231079, 0.07079067826271057, -0.2381892204284668, -0.055163025856018066, 0.24075627326965332, -0.2000640630722046], [-0.06493350863456726, -0.3356306254863739, 0.14711976051330566, -0.029190421104431152, 0.17676424980163574, 0.35986441373825073, 0.13952338695526123, 0.170407235622406, 0.00821763277053833, 0.0043915510177612305, 0.34525126218795776, 0.02125340700149536, 0.15627002716064453, -0.08588463068008423, 0.17524415254592896, -0.24415867030620575, -0.2906959354877472, -0.30795004963874817, 0.27389758825302124, 0.28934037685394287], [0.35051488876342773, 0.06858053803443909, 0.23818230628967285, 0.12256783246994019, 0.012968480587005615, -0.36107468605041504, 0.02761891484260559, -0.35035309195518494, -0.09743162989616394, -0.08181586861610413, 0.3141183853149414, -0.08909246325492859, -0.35150668025016785, 0.33462774753570557, -0.04567119479179382, -0.12535691261291504, 0.20906704664230347, 0.22773253917694092, 0.036591410636901855, -0.3459179401397705], [-0.050076067447662354, 0.11461383104324341, -0.3778713643550873, -0.3664175271987915, -0.2585407495498657, 0.330868124961853, 0.05371782183647156, 0.38185930252075195, 0.07398700714111328, -0.1537952423095703, 0.08231645822525024, 0.3500075340270996, 0.08664068579673767, -0.06023365259170532, -0.15327204763889313, -0.1527167111635208, 0.2674528956413269, 0.07275822758674622, -0.16351734101772308, 0.13127124309539795], [0.0458599328994751, 0.15291839838027954, 0.17118322849273682, -0.2631109952926636, -0.09685596823692322, -0.3209947943687439, -0.24158573150634766, -0.06379330158233643, 0.29246652126312256, 0.10538256168365479, -0.23482199013233185, -0.09873563051223755, 0.15886777639389038, 0.048295289278030396, 0.37514615058898926, 0.1271321177482605, -0.24542132019996643, 0.2553878426551819, -0.16953176259994507, -0.07780447602272034], [0.3743918538093567, -0.363840788602829, 0.21558570861816406, 0.22373557090759277, -0.25269079208374023, -0.004848092794418335, -0.2813606262207031, 0.05195939540863037, 0.01307523250579834, 0.23612046241760254, 0.2538859248161316, 0.33709460496902466, -0.117561936378479, -0.10728716850280762, 0.27596402168273926, -0.16553440690040588, 0.04521191120147705, 0.09130260348320007, 0.19917362928390503, -0.14737775921821594]], [0.0, 0.0, 0.0, 0.0, 0.0, 0.0, 0.0, 0.0, 0.0, 0.0, 0.0, 0.0, 0.0, 0.0, 0.0, 0.0, 0.0, 0.0, 0.0, 0.0]]}, {"class_name": "Dense", "units": 1, "activation": "linear", "weights": [[[0.06316477060317993], [0.4786439538002014], [0.4450306296348572], [0.310896098613739], [0.3458057641983032], [-0.008721470832824707], [0.20923227071762085], [-0.2553630471229553], [0.2502593398094177], [0.4879212975502014], [-0.48061391711235046], [0.4610879421234131], [-0.3218182325363159], [-0.032880187034606934], [0.5240442156791687], [0.07702594995498657], [0.20812314748764038], [0.5146521925926208], [0.4147161841392517], [-0.3834933638572693]], [0.0]]}]}